{
    "trees": [
        {
            "version": "0.1",
            "estimator": "DecisionTreeClassifier",
            "is_classification": true,
            "n_nodes": 9,
            "n_leaves": 5,
            "max_depth": 3,
            "leaf_len": 3,
            "input_len": 4,
            "eden_leaf_indicator": 5,
            "feature": [
                3,
                5,
                3,
                2,
                5,
                5,
                2,
                5,
                5
            ],
            "threshold": [
                0.800000011920929,
                0.0,
                1.75,
                4.950000047683716,
                0.0,
                0.0,
                4.8500001430511475,
                0.0,
                0.0
            ],
            "children_right": [
                2,
                0,
                4,
                2,
                0,
                0,
                2,
                0,
                0
            ],
            "children_left": [
                1,
                -1,
                3,
                4,
                -1,
                -1,
                7,
                -1,
                -1
            ],
            "value": [
                [
                    0.3333333333333333,
                    0.3333333333333333,
                    0.3333333333333333
                ],
                [
                    1.0,
                    0.0,
                    0.0
                ],
                [
                    0.0,
                    0.5,
                    0.5
                ],
                [
                    0.0,
                    0.9074074074074074,
                    0.09259259259259259
                ],
                [
                    0.0,
                    0.9791666666666666,
                    0.020833333333333332
                ],
                [
                    0.0,
                    0.3333333333333333,
                    0.6666666666666666
                ],
                [
                    0.0,
                    0.021739130434782608,
                    0.9782608695652174
                ],
                [
                    0.0,
                    0.3333333333333333,
                    0.6666666666666666
                ],
                [
                    0.0,
                    0.0,
                    1.0
                ]
            ]
        }
    ],
    "version": "0.1",
    "is_classification": true,
    "n_estimators": 1,
    "is_forest": false,
    "n_trees": 1,
    "estimator": "DecisionTreeClassifier",
    "input_len": 4,
    "max_depth": 3,
    "n_nodes": 9,
    "n_leaves": 5,
    "eden_leaf_indicator": 5,
    "leaf_len": 3,
    "output_len": 3
}