{
    "trees": [
        {
            "version": "0.1",
            "estimator": "DecisionTreeRegressor",
            "is_classification": false,
            "n_nodes": 15,
            "n_leaves": 8,
            "max_depth": 3,
            "leaf_len": 1,
            "input_len": 10,
            "eden_leaf_indicator": 11,
            "feature": [
                8,
                2,
                6,
                11,
                11,
                0,
                11,
                11,
                2,
                2,
                11,
                11,
                2,
                11,
                11
            ],
            "threshold": [
                -0.0037611760199069977,
                0.0061888848431408405,
                0.021027816459536552,
                0.0,
                0.0,
                -0.07998159155249596,
                0.0,
                0.0,
                0.014811381697654724,
                -0.021834230050444603,
                0.0,
                0.0,
                0.06870198622345924,
                0.0,
                0.0
            ],
            "children_right": [
                8,
                4,
                2,
                0,
                0,
                2,
                0,
                0,
                4,
                2,
                0,
                0,
                2,
                0,
                0
            ],
            "children_left": [
                1,
                2,
                3,
                -1,
                -1,
                6,
                -1,
                -1,
                9,
                10,
                -1,
                -1,
                13,
                -1,
                -1
            ],
            "value": [
                [
                    1.0095494073695542e-14
                ],
                [
                    -42.147245630785825
                ],
                [
                    -55.82354264242809
                ],
                [
                    -43.32888646174649
                ],
                [
                    -68.7644365438483
                ],
                [
                    7.611196688167895
                ],
                [
                    121.86651583710406
                ],
                [
                    2.533182503770727
                ],
                [
                    41.0183015513898
                ],
                [
                    10.547550319862706
                ],
                [
                    -14.443007972419743
                ],
                [
                    24.73138070196895
                ],
                [
                    73.74614546673371
                ],
                [
                    56.43794440853265
                ],
                [
                    116.73748357903956
                ]
            ]
        },
        {
            "version": "0.1",
            "estimator": "DecisionTreeRegressor",
            "is_classification": false,
            "n_nodes": 15,
            "n_leaves": 8,
            "max_depth": 3,
            "leaf_len": 1,
            "input_len": 10,
            "eden_leaf_indicator": 11,
            "feature": [
                8,
                2,
                5,
                11,
                11,
                0,
                11,
                11,
                2,
                9,
                11,
                11,
                2,
                11,
                11
            ],
            "threshold": [
                -0.0037611760199069977,
                0.0061888848431408405,
                0.11267216503620148,
                0.0,
                0.0,
                -0.07998159155249596,
                0.0,
                0.0,
                0.014811381697654724,
                0.0486275851726532,
                0.0,
                0.0,
                0.06870198622345924,
                0.0,
                0.0
            ],
            "children_right": [
                8,
                4,
                2,
                0,
                0,
                2,
                0,
                0,
                4,
                2,
                0,
                0,
                2,
                0,
                0
            ],
            "children_left": [
                1,
                2,
                3,
                -1,
                -1,
                6,
                -1,
                -1,
                9,
                10,
                -1,
                -1,
                13,
                -1,
                -1
            ],
            "value": [
                [
                    -1.144584678418985e-14
                ],
                [
                    -37.932521067707135
                ],
                [
                    -50.241188378185115
                ],
                [
                    -51.15554480678198
                ],
                [
                    105.1994044832787
                ],
                [
                    6.850077019351095
                ],
                [
                    109.67986425339365
                ],
                [
                    2.2798642533936495
                ],
                [
                    36.91647139625081
                ],
                [
                    9.49279528787641
                ],
                [
                    1.4136406637325638
                ],
                [
                    48.27273748376688
                ],
                [
                    66.37153092006027
                ],
                [
                    50.79414996767927
                ],
                [
                    105.06373522113556
                ]
            ]
        }
    ],
    "version": "0.1",
    "is_classification": false,
    "n_estimators": 2,
    "is_forest": false,
    "n_trees": 2,
    "estimator": "GradientBoostingRegressor",
    "input_len": 10,
    "max_depth": 3,
    "n_nodes": 30,
    "n_leaves": 16,
    "eden_leaf_indicator": 11,
    "leaf_len": 1,
    "output_len": 1
}