{
    "trees": [
        {
            "version": "0.1",
            "estimator": "DecisionTreeRegressor",
            "is_classification": false,
            "n_nodes": 3,
            "n_leaves": 2,
            "max_depth": 1,
            "leaf_len": 1,
            "input_len": 4,
            "eden_leaf_indicator": 5,
            "feature": [
                3,
                5,
                5
            ],
            "threshold": [
                0.800000011920929,
                0.0,
                0.0
            ],
            "children_right": [
                2,
                0,
                0
            ],
            "children_left": [
                1,
                -1,
                -1
            ],
            "value": [
                [
                    3.515706244646329e-16
                ],
                [
                    2.0
                ],
                [
                    -1.0000000000000002
                ]
            ]
        },
        {
            "version": "0.1",
            "estimator": "DecisionTreeRegressor",
            "is_classification": false,
            "n_nodes": 9,
            "n_leaves": 5,
            "max_depth": 3,
            "leaf_len": 1,
            "input_len": 4,
            "eden_leaf_indicator": 5,
            "feature": [
                3,
                5,
                3,
                2,
                5,
                5,
                2,
                5,
                5
            ],
            "threshold": [
                0.800000011920929,
                0.0,
                1.75,
                4.950000047683716,
                0.0,
                0.0,
                4.8500001430511475,
                0.0,
                0.0
            ],
            "children_right": [
                2,
                0,
                4,
                2,
                0,
                0,
                2,
                0,
                0
            ],
            "children_left": [
                1,
                -1,
                3,
                4,
                -1,
                -1,
                7,
                -1,
                -1
            ],
            "value": [
                [
                    -1.768955352569416e-16
                ],
                [
                    -0.9999999999999999
                ],
                [
                    0.16666666666666655
                ],
                [
                    0.5740740740740746
                ],
                [
                    1.9375000000000002
                ],
                [
                    1.6653345369377346e-16
                ],
                [
                    -0.3115942028985509
                ],
                [
                    1.1102230246251565e-16
                ],
                [
                    -1.0000000000000002
                ]
            ]
        },
        {
            "version": "0.1",
            "estimator": "DecisionTreeRegressor",
            "is_classification": false,
            "n_nodes": 13,
            "n_leaves": 7,
            "max_depth": 3,
            "leaf_len": 1,
            "input_len": 4,
            "eden_leaf_indicator": 5,
            "feature": [
                3,
                2,
                3,
                5,
                5,
                3,
                5,
                5,
                2,
                0,
                5,
                5,
                5
            ],
            "threshold": [
                1.75,
                4.950000047683716,
                1.6500000357627869,
                0.0,
                0.0,
                1.550000011920929,
                0.0,
                0.0,
                4.8500001430511475,
                5.950000047683716,
                0.0,
                0.0,
                0.0
            ],
            "children_right": [
                8,
                4,
                2,
                0,
                0,
                2,
                0,
                0,
                4,
                2,
                0,
                0,
                0
            ],
            "children_left": [
                1,
                2,
                3,
                -1,
                -1,
                6,
                -1,
                -1,
                9,
                10,
                -1,
                -1,
                -1
            ],
            "value": [
                [
                    4.144832625267251e-16
                ],
                [
                    -0.28525641025640974
                ],
                [
                    -0.3231292517006798
                ],
                [
                    -0.9999999999999999
                ],
                [
                    2.0000000000000004
                ],
                [
                    0.3333333333333334
                ],
                [
                    2.0
                ],
                [
                    1.1102230246251564e-16
                ],
                [
                    0.6449275362318845
                ],
                [
                    0.3333333333333334
                ],
                [
                    -0.9999999999999999
                ],
                [
                    2.0000000000000004
                ],
                [
                    2.000000000000001
                ]
            ]
        },
        {
            "version": "0.1",
            "estimator": "DecisionTreeRegressor",
            "is_classification": false,
            "n_nodes": 9,
            "n_leaves": 5,
            "max_depth": 3,
            "leaf_len": 1,
            "input_len": 4,
            "eden_leaf_indicator": 5,
            "feature": [
                2,
                5,
                0,
                1,
                5,
                5,
                1,
                5,
                5
            ],
            "threshold": [
                2.449999988079071,
                0.0,
                4.950000047683716,
                2.450000047683716,
                0.0,
                0.0,
                2.850000023841858,
                0.0,
                0.0
            ],
            "children_right": [
                2,
                0,
                4,
                2,
                0,
                0,
                2,
                0,
                0
            ],
            "children_left": [
                1,
                -1,
                3,
                4,
                -1,
                -1,
                7,
                -1,
                -1
            ],
            "value": [
                [
                    -0.00016472905065836172
                ],
                [
                    1.6544242942422902
                ],
                [
                    -0.298767137984549
                ],
                [
                    -0.28508907049426435
                ],
                [
                    -0.9513907025680941
                ],
                [
                    -0.9143777566951282
                ],
                [
                    -0.2990462822190446
                ],
                [
                    -0.9502831742004956
                ],
                [
                    -0.9518605817710228
                ]
            ]
        },
        {
            "version": "0.1",
            "estimator": "DecisionTreeRegressor",
            "is_classification": false,
            "n_nodes": 9,
            "n_leaves": 5,
            "max_depth": 3,
            "leaf_len": 1,
            "input_len": 4,
            "eden_leaf_indicator": 5,
            "feature": [
                3,
                5,
                3,
                2,
                5,
                5,
                2,
                5,
                5
            ],
            "threshold": [
                0.800000011920929,
                0.0,
                1.75,
                4.950000047683716,
                0.0,
                0.0,
                4.8500001430511475,
                0.0,
                0.0
            ],
            "children_right": [
                2,
                0,
                4,
                2,
                0,
                0,
                2,
                0,
                0
            ],
            "children_left": [
                1,
                -1,
                3,
                4,
                -1,
                -1,
                7,
                -1,
                -1
            ],
            "value": [
                [
                    0.00011801653417249666
                ],
                [
                    -0.9503716554588938
                ],
                [
                    0.14943704700553936
                ],
                [
                    0.5143652924815029
                ],
                [
                    1.6062616988237863
                ],
                [
                    0.0038202575627446075
                ],
                [
                    -0.27895698029233096
                ],
                [
                    0.004355969283885231
                ],
                [
                    -0.9503716554588936
                ]
            ]
        },
        {
            "version": "0.1",
            "estimator": "DecisionTreeRegressor",
            "is_classification": false,
            "n_nodes": 13,
            "n_leaves": 7,
            "max_depth": 3,
            "leaf_len": 1,
            "input_len": 4,
            "eden_leaf_indicator": 5,
            "feature": [
                3,
                2,
                3,
                5,
                5,
                3,
                5,
                5,
                2,
                0,
                5,
                5,
                5
            ],
            "threshold": [
                1.75,
                4.950000047683716,
                1.6500000357627869,
                0.0,
                0.0,
                1.550000011920929,
                0.0,
                0.0,
                4.8500001430511475,
                5.950000047683716,
                0.0,
                0.0,
                0.0
            ],
            "children_right": [
                8,
                4,
                2,
                0,
                0,
                2,
                0,
                0,
                4,
                2,
                0,
                0,
                0
            ],
            "children_left": [
                1,
                2,
                3,
                -1,
                -1,
                6,
                -1,
                -1,
                9,
                10,
                -1,
                -1,
                -1
            ],
            "value": [
                [
                    4.671251648535139e-05
                ],
                [
                    -0.2554065943339182
                ],
                [
                    -0.2893616762621156
                ],
                [
                    -0.950865787605581
                ],
                [
                    1.8230584742034082
                ],
                [
                    0.2991930771599725
                ],
                [
                    1.706365982506466
                ],
                [
                    -0.032249101538204726
                ],
                [
                    0.5775933193087023
                ],
                [
                    0.2988562896879929
                ],
                [
                    -0.9833472083473733
                ],
                [
                    1.7063659825064659
                ],
                [
                    1.6544242942422906
                ]
            ]
        }
    ],
    "version": "0.1",
    "is_classification": true,
    "n_estimators": 2,
    "is_forest": false,
    "n_trees": 6,
    "estimator": "GradientBoostingClassifier",
    "input_len": 4,
    "max_depth": 3,
    "n_nodes": 56,
    "n_leaves": 31,
    "eden_leaf_indicator": 5,
    "leaf_len": 1,
    "output_len": 3
}