{
    "trees": [
        {
            "version": "0.1",
            "estimator": "DecisionTreeClassifier",
            "is_classification": true,
            "n_nodes": 13,
            "n_leaves": 7,
            "max_depth": 4,
            "leaf_len": 3,
            "input_len": 4,
            "eden_leaf_indicator": 5,
            "feature": [
                3,
                5,
                2,
                3,
                5,
                1,
                5,
                5,
                0,
                5,
                2,
                5,
                5
            ],
            "threshold": [
                0.75,
                0.0,
                4.8500001430511475,
                1.6500000357627869,
                0.0,
                3.0,
                0.0,
                0.0,
                6.599999904632568,
                0.0,
                5.200000047683716,
                0.0,
                0.0
            ],
            "children_right": [
                2,
                0,
                6,
                2,
                0,
                2,
                0,
                0,
                2,
                0,
                2,
                0,
                0
            ],
            "children_left": [
                1,
                -1,
                3,
                4,
                -1,
                6,
                -1,
                -1,
                9,
                -1,
                11,
                -1,
                -1
            ],
            "value": [
                [
                    0.31333333333333335,
                    0.29333333333333333,
                    0.3933333333333333
                ],
                [
                    1.0,
                    0.0,
                    0.0
                ],
                [
                    0.0,
                    0.42718446601941745,
                    0.5728155339805825
                ],
                [
                    0.0,
                    0.9347826086956522,
                    0.06521739130434782
                ],
                [
                    0.0,
                    1.0,
                    0.0
                ],
                [
                    0.0,
                    0.25,
                    0.75
                ],
                [
                    0.0,
                    0.0,
                    1.0
                ],
                [
                    0.0,
                    1.0,
                    0.0
                ],
                [
                    0.0,
                    0.017543859649122806,
                    0.9824561403508771
                ],
                [
                    0.0,
                    0.0,
                    1.0
                ],
                [
                    0.0,
                    0.03333333333333333,
                    0.9666666666666667
                ],
                [
                    0.0,
                    1.0,
                    0.0
                ],
                [
                    0.0,
                    0.0,
                    1.0
                ]
            ]
        },
        {
            "version": "0.1",
            "estimator": "DecisionTreeClassifier",
            "is_classification": true,
            "n_nodes": 15,
            "n_leaves": 8,
            "max_depth": 5,
            "leaf_len": 3,
            "input_len": 4,
            "eden_leaf_indicator": 5,
            "feature": [
                3,
                5,
                3,
                2,
                5,
                2,
                1,
                5,
                5,
                5,
                2,
                1,
                5,
                5,
                5
            ],
            "threshold": [
                0.800000011920929,
                0.0,
                1.75,
                4.950000047683716,
                0.0,
                5.450000047683716,
                2.450000047683716,
                0.0,
                0.0,
                0.0,
                4.8500001430511475,
                3.100000023841858,
                0.0,
                0.0,
                0.0
            ],
            "children_right": [
                2,
                0,
                8,
                2,
                0,
                4,
                2,
                0,
                0,
                0,
                4,
                2,
                0,
                0,
                0
            ],
            "children_left": [
                1,
                -1,
                3,
                4,
                -1,
                6,
                7,
                -1,
                -1,
                -1,
                11,
                12,
                -1,
                -1,
                -1
            ],
            "value": [
                [
                    0.30666666666666664,
                    0.41333333333333333,
                    0.28
                ],
                [
                    1.0,
                    0.0,
                    0.0
                ],
                [
                    0.0,
                    0.5961538461538461,
                    0.40384615384615385
                ],
                [
                    0.0,
                    0.9242424242424242,
                    0.07575757575757576
                ],
                [
                    0.0,
                    1.0,
                    0.0
                ],
                [
                    0.0,
                    0.375,
                    0.625
                ],
                [
                    0.0,
                    0.6,
                    0.4
                ],
                [
                    0.0,
                    0.0,
                    1.0
                ],
                [
                    0.0,
                    1.0,
                    0.0
                ],
                [
                    0.0,
                    0.0,
                    1.0
                ],
                [
                    0.0,
                    0.02631578947368421,
                    0.9736842105263158
                ],
                [
                    0.0,
                    0.3333333333333333,
                    0.6666666666666666
                ],
                [
                    0.0,
                    0.0,
                    1.0
                ],
                [
                    0.0,
                    1.0,
                    0.0
                ],
                [
                    0.0,
                    0.0,
                    1.0
                ]
            ]
        }
    ],
    "version": "0.1",
    "is_classification": true,
    "n_estimators": 2,
    "is_forest": true,
    "n_trees": 2,
    "estimator": "RandomForestClassifier",
    "input_len": 4,
    "max_depth": 5,
    "n_nodes": 28,
    "n_leaves": 15,
    "eden_leaf_indicator": 5,
    "leaf_len": 3,
    "output_len": 3
}