{
    "trees": [
        {
            "version": "0.1",
            "estimator": "DecisionTreeRegressor",
            "is_classification": false,
            "n_nodes": 15,
            "n_leaves": 8,
            "max_depth": 3,
            "leaf_len": 1,
            "input_len": 10,
            "eden_leaf_indicator": 11,
            "feature": [
                8,
                2,
                6,
                11,
                11,
                0,
                11,
                11,
                2,
                2,
                11,
                11,
                2,
                11,
                11
            ],
            "threshold": [
                -0.0037611760199069977,
                0.0061888848431408405,
                0.021027816459536552,
                0.0,
                0.0,
                -0.07998159155249596,
                0.0,
                0.0,
                0.014811381697654724,
                -0.021834230050444603,
                0.0,
                0.0,
                0.06870198622345924,
                0.0,
                0.0
            ],
            "children_right": [
                8,
                4,
                2,
                0,
                0,
                2,
                0,
                0,
                4,
                2,
                0,
                0,
                2,
                0,
                0
            ],
            "children_left": [
                1,
                2,
                3,
                -1,
                -1,
                6,
                -1,
                -1,
                9,
                10,
                -1,
                -1,
                13,
                -1,
                -1
            ],
            "value": [
                [
                    152.13348416289594
                ],
                [
                    109.9862385321101
                ],
                [
                    96.30994152046783
                ],
                [
                    108.80459770114942
                ],
                [
                    83.36904761904762
                ],
                [
                    159.74468085106383
                ],
                [
                    274.0
                ],
                [
                    154.66666666666666
                ],
                [
                    193.15178571428572
                ],
                [
                    162.68103448275863
                ],
                [
                    137.6904761904762
                ],
                [
                    176.86486486486487
                ],
                [
                    225.87962962962962
                ],
                [
                    208.57142857142858
                ],
                [
                    268.8709677419355
                ]
            ]
        }
    ],
    "version": "0.1",
    "is_classification": false,
    "n_estimators": 1,
    "is_forest": false,
    "n_trees": 1,
    "estimator": "DecisionTreeRegressor",
    "input_len": 10,
    "max_depth": 3,
    "n_nodes": 15,
    "n_leaves": 8,
    "eden_leaf_indicator": 11,
    "leaf_len": 1,
    "output_len": 1
}